<?xml version='1.0' encoding='utf-8'?>
<BIF VERSION="0.3">
  <NETWORK>
    <NAME>UNTITLED</NAME>
    <VARIABLE TYPE="nature">
      <NAME>Region</NAME>
      <OUTCOME>Region_Amazonia</OUTCOME>
      <OUTCOME>Region_Andina</OUTCOME>
      <OUTCOME>Region_Caribe</OUTCOME>
      <OUTCOME>Region_Orinoquia</OUTCOME>
      <OUTCOME>Region_Pacifica</OUTCOME>
      <PROPERTY />
    </VARIABLE>
    <VARIABLE TYPE="nature">
      <NAME>Respuesta</NAME>
      <OUTCOME>0</OUTCOME>
      <OUTCOME>1</OUTCOME>
      <PROPERTY />
    </VARIABLE>
    <VARIABLE TYPE="nature">
      <NAME>cole_area_ubicacion</NAME>
      <OUTCOME>RURAL</OUTCOME>
      <OUTCOME>URBANO</OUTCOME>
      <PROPERTY />
    </VARIABLE>
    <VARIABLE TYPE="nature">
      <NAME>cole_bilingue</NAME>
      <OUTCOME>N</OUTCOME>
      <OUTCOME>S</OUTCOME>
      <PROPERTY />
    </VARIABLE>
    <VARIABLE TYPE="nature">
      <NAME>cole_caracter</NAME>
      <OUTCOME>ACADEMICO</OUTCOME>
      <OUTCOME>TECNICO</OUTCOME>
      <OUTCOME>TECNICO_ACADEMICO</OUTCOME>
      <PROPERTY />
    </VARIABLE>
    <VARIABLE TYPE="nature">
      <NAME>cole_depto_ubicacion</NAME>
      <OUTCOME>Region_Amazonia</OUTCOME>
      <OUTCOME>Region_Andina</OUTCOME>
      <OUTCOME>Region_Caribe</OUTCOME>
      <OUTCOME>Region_Orinoquia</OUTCOME>
      <OUTCOME>Region_Pacifica</OUTCOME>
      <PROPERTY />
    </VARIABLE>
    <VARIABLE TYPE="nature">
      <NAME>cole_genero</NAME>
      <OUTCOME>FEMENINO</OUTCOME>
      <OUTCOME>MASCULINO</OUTCOME>
      <OUTCOME>MIXTO</OUTCOME>
      <PROPERTY />
    </VARIABLE>
    <VARIABLE TYPE="nature">
      <NAME>cole_jornada</NAME>
      <OUTCOME>COMPLETA</OUTCOME>
      <OUTCOME>MANANA</OUTCOME>
      <OUTCOME>NOCHE</OUTCOME>
      <OUTCOME>SABATINA</OUTCOME>
      <OUTCOME>TARDE</OUTCOME>
      <OUTCOME>UNICA</OUTCOME>
      <PROPERTY />
    </VARIABLE>
    <VARIABLE TYPE="nature">
      <NAME>cole_naturaleza</NAME>
      <OUTCOME>NO_OFICIAL</OUTCOME>
      <OUTCOME>OFICIAL</OUTCOME>
      <PROPERTY />
    </VARIABLE>
    <VARIABLE TYPE="nature">
      <NAME>desemp_ingles</NAME>
      <OUTCOME>A_</OUTCOME>
      <OUTCOME>A1</OUTCOME>
      <OUTCOME>A2</OUTCOME>
      <OUTCOME>B_</OUTCOME>
      <OUTCOME>B1</OUTCOME>
      <PROPERTY />
    </VARIABLE>
    <VARIABLE TYPE="nature">
      <NAME>estu_fechanacimiento</NAME>
      <OUTCOME>2000_2005</OUTCOME>
      <OUTCOME>2005_y_2006</OUTCOME>
      <OUTCOME>_2000</OUTCOME>
      <OUTCOME>_2006</OUTCOME>
      <PROPERTY />
    </VARIABLE>
    <VARIABLE TYPE="nature">
      <NAME>estu_genero</NAME>
      <OUTCOME>F</OUTCOME>
      <OUTCOME>M</OUTCOME>
      <PROPERTY />
    </VARIABLE>
    <VARIABLE TYPE="nature">
      <NAME>estu_tipodocumento</NAME>
      <OUTCOME>CC</OUTCOME>
      <OUTCOME>Otros</OUTCOME>
      <OUTCOME>TI</OUTCOME>
      <PROPERTY />
    </VARIABLE>
    <VARIABLE TYPE="nature">
      <NAME>fami_cuartoshogar</NAME>
      <OUTCOME>Cinco</OUTCOME>
      <OUTCOME>Cuatro</OUTCOME>
      <OUTCOME>Dos</OUTCOME>
      <OUTCOME>Seis_o_mas</OUTCOME>
      <OUTCOME>Tres</OUTCOME>
      <OUTCOME>Uno</OUTCOME>
      <PROPERTY />
    </VARIABLE>
    <VARIABLE TYPE="nature">
      <NAME>fami_educacionmadre</NAME>
      <OUTCOME>Educacion_profesional_completa</OUTCOME>
      <OUTCOME>Educacion_profesional_incompleta</OUTCOME>
      <OUTCOME>Ninguno</OUTCOME>
      <OUTCOME>No_sabe</OUTCOME>
      <OUTCOME>Postgrado</OUTCOME>
      <OUTCOME>Primaria_completa</OUTCOME>
      <OUTCOME>Primaria_incompleta</OUTCOME>
      <OUTCOME>Secundaria_Bachillerato_completa</OUTCOME>
      <OUTCOME>Secundaria_Bachillerato_incompleta</OUTCOME>
      <OUTCOME>Tecnica_o_tecnologica_completa</OUTCOME>
      <OUTCOME>Tecnica_o_tecnologica_incompleta</OUTCOME>
      <PROPERTY />
    </VARIABLE>
    <VARIABLE TYPE="nature">
      <NAME>fami_educacionpadre</NAME>
      <OUTCOME>Educacion_profesional_completa</OUTCOME>
      <OUTCOME>Educacion_profesional_incompleta</OUTCOME>
      <OUTCOME>Ninguno</OUTCOME>
      <OUTCOME>No_sabe</OUTCOME>
      <OUTCOME>Postgrado</OUTCOME>
      <OUTCOME>Primaria_completa</OUTCOME>
      <OUTCOME>Primaria_incompleta</OUTCOME>
      <OUTCOME>Secundaria_Bachillerato_completa</OUTCOME>
      <OUTCOME>Secundaria_Bachillerato_incompleta</OUTCOME>
      <OUTCOME>Tecnica_o_tecnologica_completa</OUTCOME>
      <OUTCOME>Tecnica_o_tecnologica_incompleta</OUTCOME>
      <PROPERTY />
    </VARIABLE>
    <VARIABLE TYPE="nature">
      <NAME>fami_estratovivienda</NAME>
      <OUTCOME>Estrato_1</OUTCOME>
      <OUTCOME>Estrato_2</OUTCOME>
      <OUTCOME>Estrato_3</OUTCOME>
      <OUTCOME>Estrato_4</OUTCOME>
      <OUTCOME>Estrato_5</OUTCOME>
      <OUTCOME>Estrato_6</OUTCOME>
      <OUTCOME>Sin_Estrato</OUTCOME>
      <PROPERTY />
    </VARIABLE>
    <VARIABLE TYPE="nature">
      <NAME>fami_personashogar</NAME>
      <OUTCOME>1_a_2</OUTCOME>
      <OUTCOME>3_a_4</OUTCOME>
      <OUTCOME>5_a_6</OUTCOME>
      <OUTCOME>7_a_8</OUTCOME>
      <OUTCOME>9_o_mas</OUTCOME>
      <PROPERTY />
    </VARIABLE>
    <VARIABLE TYPE="nature">
      <NAME>fami_tieneautomovil</NAME>
      <OUTCOME>No</OUTCOME>
      <OUTCOME>Si</OUTCOME>
      <PROPERTY />
    </VARIABLE>
    <VARIABLE TYPE="nature">
      <NAME>fami_tienecomputador</NAME>
      <OUTCOME>No</OUTCOME>
      <OUTCOME>Si</OUTCOME>
      <PROPERTY />
    </VARIABLE>
    <VARIABLE TYPE="nature">
      <NAME>fami_tieneinternet</NAME>
      <OUTCOME>No</OUTCOME>
      <OUTCOME>Si</OUTCOME>
      <PROPERTY />
    </VARIABLE>
    <VARIABLE TYPE="nature">
      <NAME>fami_tienelavadora</NAME>
      <OUTCOME>No</OUTCOME>
      <OUTCOME>Si</OUTCOME>
      <PROPERTY />
    </VARIABLE>
    <DEFINITION>
      <FOR>Region</FOR>
      <GIVEN>cole_depto_ubicacion</GIVEN>
      <TABLE>1.0 0.0 0.0 0.0 0.0 0.0 1.0 0.0 0.0 0.0 0.0 0.0 1.0 0.0 0.0 0.0 0.0 0.0 1.0 0.0 0.0 0.0 0.0 0.0 1.0 </TABLE>
    </DEFINITION>
    <DEFINITION>
      <FOR>Respuesta</FOR>
      <TABLE>0.9820902096461378 0.01790979035386222 </TABLE>
    </DEFINITION>
    <DEFINITION>
      <FOR>cole_area_ubicacion</FOR>
      <GIVEN>fami_tieneinternet</GIVEN>
      <TABLE>0.2915758640890451 0.7084241359109549 0.11550068307403707 0.884499316925963 </TABLE>
    </DEFINITION>
    <DEFINITION>
      <FOR>cole_bilingue</FOR>
      <GIVEN>cole_depto_ubicacion</GIVEN>
      <TABLE>0.9260844748858448 0.07391552511415525 0.991545370921487 0.008454629078513068 0.9920944165409131 0.007905583459086917 0.9963044073364358 0.0036955926635641938 0.9497764017887856 0.05022359821121431 </TABLE>
    </DEFINITION>
    <DEFINITION>
      <FOR>cole_caracter</FOR>
      <GIVEN>cole_naturaleza</GIVEN>
      <TABLE>0.8543724844493231 0.06631906330040249 0.07930845225027443 0.40038857162081465 0.1384139212932202 0.4611975070859652 </TABLE>
    </DEFINITION>
    <DEFINITION>
      <FOR>cole_depto_ubicacion</FOR>
      <GIVEN>cole_jornada</GIVEN>
      <TABLE>0.003082212079900421 0.7942030703574181 0.15671862960109062 0.01772271945942742 0.028273368502163474 0.025678507899047184 0.42795751950545097 0.3500942249775445 0.06650346078655842 0.12976628683139893 0.022055052145665926 0.505385535989058 0.3786972131988374 0.04992306377158488 0.04393913489485382 0.0558905721429622 0.6826003824091779 0.11560523606412708 0.12031181056037653 0.025591998823356377 0.00584300110085528 0.409179439410619 0.4621051740198154 0.03548141248200525 0.08739097298670506 0.03319735546490364 0.5579078163829887 0.3146012097341398 0.039902471046091806 0.054391147371876024 </TABLE>
    </DEFINITION>
    <DEFINITION>
      <FOR>cole_genero</FOR>
      <GIVEN>desemp_ingles</GIVEN>
      <TABLE>0.010283984897233608 0.001380992257628513 0.9883350228451379 0.026546806210950888 0.003110747897608942 0.9703424458914401 0.04541185310416079 0.00906358598666291 0.9455245609091762 0.09954273654590222 0.029546253957087584 0.8709110094970102 0.0704066265060241 0.018637048192771084 0.9109563253012049 </TABLE>
    </DEFINITION>
    <DEFINITION>
      <FOR>cole_jornada</FOR>
      <GIVEN>cole_naturaleza</GIVEN>
      <TABLE>0.4313483351628247 0.3699231613611416 0.020581778265642153 0.1002103915111599 0.04880168313208928 0.029134650567142335 0.06257517010521713 0.409522527902302 0.045409051531998285 0.038756234387747376 0.0903471071599788 0.3533899089127564 </TABLE>
    </DEFINITION>
    <DEFINITION>
      <FOR>cole_naturaleza</FOR>
      <GIVEN>desemp_ingles</GIVEN>
      <TABLE>0.08278607842273054 0.9172139215772694 0.12632799936730552 0.8736720006326945 0.22795153564384332 0.7720484643561567 0.6774533943017939 0.32254660569820615 0.43834713855421686 0.5616528614457831 </TABLE>
    </DEFINITION>
    <DEFINITION>
      <FOR>desemp_ingles</FOR>
      <GIVEN>Respuesta</GIVEN>
      <TABLE>0.4923828125 0.2742983217592593 0.15249565972222223 0.011711516203703703 0.06911168981481482 0.0 0.005553351844506148 0.08449028163427211 0.4855216184053947 0.42443474811582704 </TABLE>
    </DEFINITION>
    <DEFINITION>
      <FOR>estu_fechanacimiento</FOR>
      <GIVEN>cole_jornada</GIVEN>
      <TABLE>0.21676249184991997 0.5201825617924248 0.001896745895323336 0.2611582004623318 0.28008594726923686 0.44743655224642914 0.003029288997692809 0.26944821148664116 0.7322619251154043 0.10942041374593947 0.13609163959651221 0.022226021542143957 0.704074128548316 0.1210472128254155 0.14369760258861597 0.031181056037652595 0.34236599203996954 0.42848674739605386 0.002963841138114997 0.22618341942586162 0.27568340601115954 0.4646223097482065 0.0004688892014816899 0.25922539503915226 </TABLE>
    </DEFINITION>
    <DEFINITION>
      <FOR>estu_genero</FOR>
      <GIVEN>cole_genero</GIVEN>
      <TABLE>0.958974358974359 0.041025641025641026 0.22125181950509462 0.7787481804949054 0.5401814195308318 0.45981858046916824 </TABLE>
    </DEFINITION>
    <DEFINITION>
      <FOR>estu_tipodocumento</FOR>
      <GIVEN>estu_fechanacimiento</GIVEN>
      <TABLE>0.3583003240907454 0.036730284479654304 0.6049693914296003 0.002081887578070784 0.010425960807640198 0.987492151614289 0.9517716535433071 0.0344488188976378 0.013779527559055118 0.0015396002960769801 0.002990377498149519 0.9954700222057735 </TABLE>
    </DEFINITION>
    <DEFINITION>
      <FOR>fami_cuartoshogar</FOR>
      <GIVEN>fami_tienecomputador</GIVEN>
      <TABLE>0.023127628139561315 0.09529491987725879 0.459370382998068 0.010143198090692125 0.3292987839527219 0.08276508694169792 0.03726072560360386 0.13986272364251304 0.33267489945856843 0.01574556978214839 0.4423112450084554 0.03214483650471088 </TABLE>
    </DEFINITION>
    <DEFINITION>
      <FOR>fami_educacionmadre</FOR>
      <GIVEN>desemp_ingles</GIVEN>
      <TABLE>0.06730133544889594 0.018687469698973072 0.033966532974863003 0.018349567338063966 0.006008785461383637 0.11500433396506383 0.18265826318186493 0.28955294048511027 0.16613043031131092 0.07398592563209778 0.02835441550237266 0.11201328658424063 0.02939393140537263 0.011520312129280574 0.021827959823900036 0.011757572562149052 0.08045764901273297 0.11433316637228798 0.3110484274905755 0.1419871879366251 0.12450900271531384 0.04115150396752168 0.1854513008359162 0.04057480980557904 0.00568235183619799 0.032121724429416736 0.027989104912181834 0.052409129332206254 0.06377383300460224 0.29247675401521556 0.09941767634075327 0.15492627031088568 0.045177045177045176 0.3988744284206824 0.05909250791417517 0.0014069644741470278 0.04678156876538867 0.18431234611326064 0.009497010200492437 0.010903974674639466 0.12557157931762222 0.03306366514245515 0.10587407667956385 0.024621878297572987 0.28463855421686746 0.050922439759036146 0.002447289156626506 0.047157379518072286 0.08706701807228916 0.02739081325301205 0.024943524096385544 0.2235504518072289 0.061652861445783136 0.14853162650602408 0.0416980421686747 </TABLE>
    </DEFINITION>
    <DEFINITION>
      <FOR>fami_educacionpadre</FOR>
      <GIVEN>fami_educacionmadre</GIVEN>
      <TABLE>0.40048414713349473 0.046053020015351005 0.005372852335124284 0.06961091102320363 0.036251992678750664 0.026923304008974434 0.033063706677687904 0.19395406506465135 0.07539705969179902 0.09039381236346461 0.022495129007498376 0.2143939393939394 0.15252525252525254 0.007828282828282828 0.07095959595959596 0.02702020202020202 0.03257575757575758 0.04621212121212121 0.2106060606060606 0.09545454545454546 0.10075757575757575 0.041666666666666664 0.01 0.0034482758620689655 0.43551724137931036 0.02379310344827586 0.002413793103448276 0.08724137931034483 0.2696551724137931 0.06448275862068965 0.08724137931034483 0.010689655172413793 0.005517241379310344 0.07452135493372607 0.013843888070692194 0.011487481590574375 0.6144329896907217 0.009131075110456554 0.027098674521354935 0.04801178203240059 0.10250368188512518 0.061855670103092786 0.02857142857142857 0.008541973490427098 0.22275862068965518 0.03586206896551724 0.004137931034482759 0.06482758620689655 0.3689655172413793 0.014137931034482758 0.02482758620689655 0.12551724137931033 0.05275862068965517 0.06517241379310344 0.02103448275862069 0.01291213253207731 0.005603378268637323 0.0432840669157057 0.03922364788046127 0.0011369173298684423 0.3315738184180607 0.28366087380217636 0.1320448270261491 0.1275783660873802 0.014373883384765307 0.008608088354718208 0.01009552757273122 0.0031480677377333914 0.07598784194528875 0.04244463742943986 0.0009227095093356491 0.10470039079461572 0.5510204081632653 0.09259661311333044 0.10236647850629614 0.010529743812418585 0.0061875814155449415 0.052485914796876545 0.012973213403182762 0.01616091726796481 0.059627359889295246 0.003410101808836612 0.07991499456360582 0.11878521300780864 0.44012553128397747 0.14250766037362855 0.053721458930513 0.020287634674310568 0.028374233128834355 0.008742331288343558 0.02852760736196319 0.055265848670756644 0.002505112474437628 0.09815950920245399 0.18880368098159508 0.2023006134969325 0.3439672801635992 0.030368098159509204 0.012985685071574642 0.12371962241413939 0.03005958358438776 0.007029524000803374 0.0725045189797148 0.012519247506192675 0.040436499966526075 0.06273013322621677 0.2601593358773515 0.11207069692709379 0.2410791993037424 0.037691638213831424 0.08397100281917036 0.03503826016915022 0.012082158679017317 0.056182037857430527 0.010471204188481676 0.045106725734997986 0.0775271848570278 0.2893677003624648 0.12444623439387838 0.13129279097865484 0.13451469995972615 </TABLE>
    </DEFINITION>
    <DEFINITION>
      <FOR>fami_estratovivienda</FOR>
      <GIVEN>fami_tienecomputador</GIVEN>
      <TABLE>0.45547789521536536 0.324085123309467 0.11433117399704512 0.0273042391180816 0.010043754972155927 0.006406978065689283 0.0623508353221957 0.20622717389759695 0.3804089869118504 0.28077704671090964 0.07850047606190226 0.024712586508263582 0.00970597848484418 0.019667751424633007 </TABLE>
    </DEFINITION>
    <DEFINITION>
      <FOR>fami_personashogar</FOR>
      <GIVEN>fami_cuartoshogar</GIVEN>
      <TABLE>0.013176470588235295 0.11294117647058824 0.4868235294117647 0.26282352941176473 0.12423529411764705 0.009969788519637462 0.32253776435045317 0.4587915407854985 0.15861027190332327 0.05009063444108761 0.1478132960212392 0.5931546658056184 0.21727119434578265 0.033401499659168374 0.00835934416819144 0.015367727771679473 0.07354555433589462 0.29088913282107576 0.29308452250274425 0.32711306256860595 0.02543043918607863 0.5424362397569285 0.3480894945216831 0.06728662185802413 0.0167572046772857 0.3554648862512364 0.44572205736894166 0.1446587537091988 0.0351137487636004 0.01904055390702275 </TABLE>
    </DEFINITION>
    <DEFINITION>
      <FOR>fami_tieneautomovil</FOR>
      <GIVEN>fami_tienecomputador</GIVEN>
      <TABLE>0.895925673371974 0.10407432662802592 0.6269522090693345 0.3730477909306655 </TABLE>
    </DEFINITION>
    <DEFINITION>
      <FOR>fami_tienecomputador</FOR>
      <GIVEN>fami_educacionmadre</GIVEN>
      <TABLE>0.2166853634055618 0.7833146365944382 0.3196969696969697 0.6803030303030303 0.7965517241379311 0.20344827586206896 0.38851251840942563 0.6114874815905744 0.12034482758620689 0.8796551724137931 0.6668832223485464 0.33311677765145364 0.7291033434650456 0.2708966565349544 0.5027923297420184 0.4972076702579816 0.6142126789366054 0.3857873210633947 0.3564972886121711 0.6435027113878289 0.432339911397503 0.567660088602497 </TABLE>
    </DEFINITION>
    <DEFINITION>
      <FOR>fami_tieneinternet</FOR>
      <GIVEN>fami_tienecomputador</GIVEN>
      <TABLE>0.5171894533469712 0.48281054665302875 0.08908752433600023 0.9109124756639998 </TABLE>
    </DEFINITION>
    <DEFINITION>
      <FOR>fami_tienelavadora</FOR>
      <GIVEN>fami_tieneinternet</GIVEN>
      <TABLE>0.4410076157000586 0.5589923842999415 0.1475949676814224 0.8524050323185776 </TABLE>
    </DEFINITION>
  </NETWORK>
</BIF>
